<?xml version="1.0"?>
<opencv_storage>
<stage3>
  <maxWeakCount>8</maxWeakCount>
  <stageThreshold>-1.3262708187103271e+00</stageThreshold>
  <weakClassifiers>
    <_>
      <internalNodes>
        0 -1 747944 -8.7464809417724609e-02</internalNodes>
      <leafValues>
        6.0902255773544312e-01 -6.8688291311264038e-01</leafValues></_>
    <_>
      <internalNodes>
        0 -1 588226 8.0616734921932220e-03</internalNodes>
      <leafValues>
        -5.3051006793975830e-01 3.9886060357093811e-01</leafValues></_>
    <_>
      <internalNodes>
        0 -1 1030320 1.0078515857458115e-02</internalNodes>
      <leafValues>
        -3.6056470870971680e-01 5.7728910446166992e-01</leafValues></_>
    <_>
      <internalNodes>
        0 -1 145493 4.4041285291314125e-03</internalNodes>
      <leafValues>
        -4.6435794234275818e-01 3.9909943938255310e-01</leafValues></_>
    <_>
      <internalNodes>
        0 -1 879145 -7.9457677900791168e-02</internalNodes>
      <leafValues>
        -7.2670942544937134e-01 3.0754244327545166e-01</leafValues></_>
    <_>
      <internalNodes>
        0 -1 477344 5.9719882905483246e-02</internalNodes>
      <leafValues>
        1.5543936192989349e-01 -8.8896107673645020e-01</leafValues></_>
    <_>
      <internalNodes>
        0 -1 293062 -2.1703587844967842e-02</internalNodes>
      <leafValues>
        -6.7750251293182373e-01 1.9682426750659943e-01</leafValues></_>
    <_>
      <internalNodes>
        0 -1 1080918 8.4053417667746544e-03</internalNodes>
      <leafValues>
        2.2703324258327484e-01 -7.7807128429412842e-01</leafValues></_></weakClassifiers></stage3>
</opencv_storage>
