<?xml version="1.0"?>
<opencv_storage>
<stage2>
  <maxWeakCount>7</maxWeakCount>
  <stageThreshold>-2.1887922286987305e+00</stageThreshold>
  <weakClassifiers>
    <_>
      <internalNodes>
        0 -1 2867 -4.7699743509292603e-01</internalNodes>
      <leafValues>
        -7.4751067161560059e-01 7.3713237047195435e-01</leafValues></_>
    <_>
      <internalNodes>
        0 -1 181550 2.7886172756552696e-03</internalNodes>
      <leafValues>
        -4.9501845240592957e-01 5.3444468975067139e-01</leafValues></_>
    <_>
      <internalNodes>
        0 -1 736551 -6.6756429150700569e-03</internalNodes>
      <leafValues>
        4.3049475550651550e-01 -5.2643907070159912e-01</leafValues></_>
    <_>
      <internalNodes>
        0 -1 234302 1.0346382856369019e-01</internalNodes>
      <leafValues>
        -2.5880932807922363e-01 7.2393739223480225e-01</leafValues></_>
    <_>
      <internalNodes>
        0 -1 295424 5.9834201820194721e-03</internalNodes>
      <leafValues>
        -6.9453012943267822e-01 2.8046089410781860e-01</leafValues></_>
    <_>
      <internalNodes>
        0 -1 750397 -2.6533682830631733e-03</internalNodes>
      <leafValues>
        -1.9543698430061340e-01 8.3442509174346924e-01</leafValues></_>
    <_>
      <internalNodes>
        0 -1 726361 -1.7073674127459526e-02</internalNodes>
      <leafValues>
        6.2118583917617798e-01 -2.5379434227943420e-01</leafValues></_></weakClassifiers></stage2>
</opencv_storage>
