<?xml version="1.0"?>
<opencv_storage>
<stage7>
  <maxWeakCount>10</maxWeakCount>
  <stageThreshold>-1.4217199087142944e+00</stageThreshold>
  <weakClassifiers>
    <_>
      <internalNodes>
        0 -1 1045851 -3.6453073844313622e-03</internalNodes>
      <leafValues>
        -6.1281239986419678e-01 4.1643059253692627e-01</leafValues></_>
    <_>
      <internalNodes>
        0 -1 706215 -6.4497999846935272e-03</internalNodes>
      <leafValues>
        3.0953398346900940e-01 -5.5164241790771484e-01</leafValues></_>
    <_>
      <internalNodes>
        0 -1 533086 -1.9043060019612312e-02</internalNodes>
      <leafValues>
        -8.5017693042755127e-01 1.5176878869533539e-01</leafValues></_>
    <_>
      <internalNodes>
        0 -1 146341 -9.1898888349533081e-03</internalNodes>
      <leafValues>
        -7.1243488788604736e-01 2.3359820246696472e-01</leafValues></_>
    <_>
      <internalNodes>
        0 -1 964377 5.2529298700392246e-03</internalNodes>
      <leafValues>
        -3.2166123390197754e-01 4.8568347096443176e-01</leafValues></_>
    <_>
      <internalNodes>
        0 -1 165706 1.2448774650692940e-02</internalNodes>
      <leafValues>
        -3.1840094923973083e-01 4.8033735156059265e-01</leafValues></_>
    <_>
      <internalNodes>
        0 -1 1014424 -1.2914347462356091e-03</internalNodes>
      <leafValues>
        7.1203988790512085e-01 -1.9292302429676056e-01</leafValues></_>
    <_>
      <internalNodes>
        0 -1 1058654 -9.5808535115793347e-04</internalNodes>
      <leafValues>
        6.4668047428131104e-01 -1.7584896087646484e-01</leafValues></_>
    <_>
      <internalNodes>
        0 -1 480602 2.9557395726442337e-02</internalNodes>
      <leafValues>
        -1.1342015117406845e-01 7.7610981464385986e-01</leafValues></_>
    <_>
      <internalNodes>
        0 -1 970473 -1.0094912722706795e-03</internalNodes>
      <leafValues>
        6.7585927248001099e-01 -1.8042768537998199e-01</leafValues></_></weakClassifiers></stage7>
</opencv_storage>
