<?xml version="1.0"?>
<opencv_storage>
<stage8>
  <maxWeakCount>12</maxWeakCount>
  <stageThreshold>-1.5411748886108398e+00</stageThreshold>
  <weakClassifiers>
    <_>
      <internalNodes>
        0 -1 188931 -1.4736357331275940e-01</internalNodes>
      <leafValues>
        2.2379986941814423e-01 -6.7368853092193604e-01</leafValues></_>
    <_>
      <internalNodes>
        0 -1 543548 1.3464234769344330e-01</internalNodes>
      <leafValues>
        -3.5778382420539856e-01 4.0235748887062073e-01</leafValues></_>
    <_>
      <internalNodes>
        0 -1 700506 -6.0066748410463333e-03</internalNodes>
      <leafValues>
        2.6673227548599243e-01 -5.3148150444030762e-01</leafValues></_>
    <_>
      <internalNodes>
        0 -1 101120 1.0319271124899387e-02</internalNodes>
      <leafValues>
        -2.5155290961265564e-01 4.4366857409477234e-01</leafValues></_>
    <_>
      <internalNodes>
        0 -1 635202 -7.5168437324464321e-03</internalNodes>
      <leafValues>
        5.8941966295242310e-01 -2.2610038518905640e-01</leafValues></_>
    <_>
      <internalNodes>
        0 -1 353177 3.5028655547648668e-03</internalNodes>
      <leafValues>
        -6.0468882322311401e-01 1.9737851619720459e-01</leafValues></_>
    <_>
      <internalNodes>
        0 -1 157738 8.9524779468774796e-03</internalNodes>
      <leafValues>
        -2.1329332888126373e-01 5.6330239772796631e-01</leafValues></_>
    <_>
      <internalNodes>
        0 -1 665541 -6.3222527503967285e-02</internalNodes>
      <leafValues>
        -6.6736984252929688e-01 1.6264986991882324e-01</leafValues></_>
    <_>
      <internalNodes>
        0 -1 29643 3.6401614546775818e-02</internalNodes>
      <leafValues>
        1.5024402737617493e-01 -7.4171316623687744e-01</leafValues></_>
    <_>
      <internalNodes>
        0 -1 594515 -8.2161836326122284e-04</internalNodes>
      <leafValues>
        4.8156374692916870e-01 -2.4542024731636047e-01</leafValues></_>
    <_>
      <internalNodes>
        0 -1 476201 -2.3235932458192110e-03</internalNodes>
      <leafValues>
        -1.0053268074989319e-01 7.8255653381347656e-01</leafValues></_>
    <_>
      <internalNodes>
        0 -1 601161 6.2761933077126741e-04</internalNodes>
      <leafValues>
        -2.1173526346683502e-01 5.0924670696258545e-01</leafValues></_></weakClassifiers></stage8>
</opencv_storage>
